<?xml version="1.0"?>
<opencv_storage>
<cascade>
  <stageType>BOOST</stageType>
  <featureType>HAAR</featureType>
  <height>30</height>
  <width>30</width>
  <stageParams>
    <boostType>GAB</boostType>
    <minHitRate>9.9500000476837158e-01</minHitRate>
    <maxFalseAlarm>5.0000000000000000e-01</maxFalseAlarm>
    <weightTrimRate>9.4999999999999996e-01</weightTrimRate>
    <maxDepth>1</maxDepth>
    <maxWeakCount>100</maxWeakCount></stageParams>
  <featureParams>
    <maxCatCount>0</maxCatCount>
    <featSize>1</featSize>
    <mode>BASIC</mode></featureParams>
  <stageNum>14</stageNum>
  <stages>
    <!-- stage 0 -->
    <_>
      <maxWeakCount>3</maxWeakCount>
      <stageThreshold>-1.0567554235458374e+00</stageThreshold>
      <weakClassifiers>
        <_>
          <internalNodes>
            0 -1 38 -8.4274495020508766e-03</internalNodes>
          <leafValues>
            -9.4499015808105469e-01 9.7067451477050781e-01</leafValues></_>
        <_>
          <internalNodes>
            0 -1 48 -2.0911139249801636e-01</internalNodes>
          <leafValues>
            -9.4428324699401855e-01 8.4972649812698364e-01</leafValues></_>
        <_>
          <internalNodes>
            0 -1 37 1.4380225911736488e-03</internalNodes>
          <leafValues>
            -9.0765845775604248e-01 8.3251798152923584e-01</leafValues></_></weakClassifiers></_>
    <!-- stage 1 -->
    <_>
      <maxWeakCount>2</maxWeakCount>
      <stageThreshold>-2.7474504709243774e-01</stageThreshold>
      <weakClassifiers>
        <_>
          <internalNodes>
            0 -1 40 -1.8674950115382671e-03</internalNodes>
          <leafValues>
            7.5199997425079346e-01 -9.0947365760803223e-01</leafValues></_>
        <_>
          <internalNodes>
            0 -1 10 -2.4045842885971069e-01</internalNodes>
          <leafValues>
            -9.7573077678680420e-01 6.3472867012023926e-01</leafValues></_></weakClassifiers></_>
    <!-- stage 2 -->
    <_>
      <maxWeakCount>3</maxWeakCount>
      <stageThreshold>-9.2884659767150879e-01</stageThreshold>
      <weakClassifiers>
        <_>
          <internalNodes>
            0 -1 27 -9.6545377746224403e-03</internalNodes>
          <leafValues>
            7.8242677450180054e-01 -8.7589013576507568e-01</leafValues></_>
        <_>
          <internalNodes>
            0 -1 35 1.9358877325430512e-03</internalNodes>
          <leafValues>
            -7.5718706846237183e-01 8.2587653398513794e-01</leafValues></_>
        <_>
          <internalNodes>
            0 -1 1 1.0439935140311718e-02</internalNodes>
          <leafValues>
            -7.6410329341888428e-01 7.0423054695129395e-01</leafValues></_></weakClassifiers></_>
    <!-- stage 3 -->
    <_>
      <maxWeakCount>3</maxWeakCount>
      <stageThreshold>-1.0000115633010864e+00</stageThreshold>
      <weakClassifiers>
        <_>
          <internalNodes>
            0 -1 34 -1.7914640484377742e-03</internalNodes>
          <leafValues>
            8.1240546703338623e-01 -8.0558228492736816e-01</leafValues></_>
        <_>
          <internalNodes>
            0 -1 19 -1.6954200342297554e-02</internalNodes>
          <leafValues>
            6.2139719724655151e-01 -8.8089609146118164e-01</leafValues></_>
        <_>
          <internalNodes>
            0 -1 30 -1.0615063365548849e-03</internalNodes>
          <leafValues>
            6.8646681308746338e-01 -6.7990154027938843e-01</leafValues></_></weakClassifiers></_>
    <!-- stage 4 -->
    <_>
      <maxWeakCount>3</maxWeakCount>
      <stageThreshold>-1.0250164270401001e+00</stageThreshold>
      <weakClassifiers>
        <_>
          <internalNodes>
            0 -1 37 1.6272603534162045e-03</internalNodes>
          <leafValues>
            -9.5378148555755615e-01 8.1283420324325562e-01</leafValues></_>
        <_>
          <internalNodes>
            0 -1 42 5.6370403617620468e-03</internalNodes>
          <leafValues>
            -8.9047890901565552e-01 5.6780147552490234e-01</leafValues></_>
        <_>
          <internalNodes>
            0 -1 6 3.3382154069840908e-03</internalNodes>
          <leafValues>
            -6.3903641700744629e-01 8.2244086265563965e-01</leafValues></_></weakClassifiers></_>
    <!-- stage 5 -->
    <_>
      <maxWeakCount>6</maxWeakCount>
      <stageThreshold>-1.0495564937591553e+00</stageThreshold>
      <weakClassifiers>
        <_>
          <internalNodes>
            0 -1 38 -3.8704543840140104e-03</internalNodes>
          <leafValues>
            -7.6172608137130737e-01 8.0757099390029907e-01</leafValues></_>
        <_>
          <internalNodes>
            0 -1 30 -1.9201386021450162e-03</internalNodes>
          <leafValues>
            8.0845975875854492e-01 -5.3507584333419800e-01</leafValues></_>
        <_>
          <internalNodes>
            0 -1 9 -2.7210155967622995e-03</internalNodes>
          <leafValues>
            7.9217278957366943e-01 -4.6217006444931030e-01</leafValues></_>
        <_>
          <internalNodes>
            0 -1 24 -1.6488644760102034e-03</internalNodes>
          <leafValues>
            9.1682845354080200e-01 -3.7241318821907043e-01</leafValues></_>
        <_>
          <internalNodes>
            0 -1 15 -1.3950497843325138e-02</internalNodes>
          <leafValues>
            4.9079468846321106e-01 -7.9258143901824951e-01</leafValues></_>
        <_>
          <internalNodes>
            0 -1 34 -1.3133279280737042e-03</internalNodes>
          <leafValues>
            5.9103405475616455e-01 -5.5303633213043213e-01</leafValues></_></weakClassifiers></_>
    <!-- stage 6 -->
    <_>
      <maxWeakCount>3</maxWeakCount>
      <stageThreshold>-9.4684392213821411e-01</stageThreshold>
      <weakClassifiers>
        <_>
          <internalNodes>
            0 -1 37 2.1634818986058235e-03</internalNodes>
          <leafValues>
            -8.9818179607391357e-01 5.0400000810623169e-01</leafValues></_>
        <_>
          <internalNodes>
            0 -1 8 6.3187349587678909e-03</internalNodes>
          <leafValues>
            -5.3244471549987793e-01 7.5013881921768188e-01</leafValues></_>
        <_>
          <internalNodes>
            0 -1 41 -1.1074656620621681e-02</internalNodes>
          <leafValues>
            4.8378261923789978e-01 -6.6413730382919312e-01</leafValues></_></weakClassifiers></_>
    <!-- stage 7 -->
    <_>
      <maxWeakCount>6</maxWeakCount>
      <stageThreshold>-1.4473214149475098e+00</stageThreshold>
      <weakClassifiers>
        <_>
          <internalNodes>
            0 -1 36 -8.6907250806689262e-04</internalNodes>
          <leafValues>
            -6.3009971380233765e-01 6.6164153814315796e-01</leafValues></_>
        <_>
          <internalNodes>
            0 -1 51 -1.8802974373102188e-03</internalNodes>
          <leafValues>
            7.9172569513320923e-01 -4.0357089042663574e-01</leafValues></_>
        <_>
          <internalNodes>
            0 -1 13 -4.2362727224826813e-02</internalNodes>
          <leafValues>
            3.9622133970260620e-01 -8.3484166860580444e-01</leafValues></_>
        <_>
          <internalNodes>
            0 -1 40 -1.7917051445692778e-03</internalNodes>
          <leafValues>
            3.5230219364166260e-01 -7.8219830989837646e-01</leafValues></_>
        <_>
          <internalNodes>
            0 -1 17 3.4718625247478485e-02</internalNodes>
          <leafValues>
            -6.8192833662033081e-01 4.2229548096656799e-01</leafValues></_>
        <_>
          <internalNodes>
            0 -1 16 2.3913888726383448e-03</internalNodes>
          <leafValues>
            -4.4343125820159912e-01 6.5425455570220947e-01</leafValues></_></weakClassifiers></_>
    <!-- stage 8 -->
    <_>
      <maxWeakCount>5</maxWeakCount>
      <stageThreshold>-1.7765566110610962e+00</stageThreshold>
      <weakClassifiers>
        <_>
          <internalNodes>
            0 -1 33 -2.5760275311768055e-03</internalNodes>
          <leafValues>
            7.8070175647735596e-01 -5.2733117341995239e-01</leafValues></_>
        <_>
          <internalNodes>
            0 -1 36 -4.0484778583049774e-03</internalNodes>
          <leafValues>
            -8.1499010324478149e-01 3.5738265514373779e-01</leafValues></_>
        <_>
          <internalNodes>
            0 -1 24 -1.4366356190294027e-03</internalNodes>
          <leafValues>
            7.3658788204193115e-01 -4.3544161319732666e-01</leafValues></_>
        <_>
          <internalNodes>
            0 -1 39 -4.0461029857397079e-03</internalNodes>
          <leafValues>
            3.1883522868156433e-01 -8.7716561555862427e-01</leafValues></_>
        <_>
          <internalNodes>
            0 -1 4 6.6282963380217552e-03</internalNodes>
          <leafValues>
            -4.2966103553771973e-01 6.6470313072204590e-01</leafValues></_></weakClassifiers></_>
    <!-- stage 9 -->
    <_>
      <maxWeakCount>5</maxWeakCount>
      <stageThreshold>-1.2208757400512695e+00</stageThreshold>
      <weakClassifiers>
        <_>
          <internalNodes>
            0 -1 32 -4.6708146110177040e-03</internalNodes>
          <leafValues>
            3.4051725268363953e-01 -7.9792743921279907e-01</leafValues></_>
        <_>
          <internalNodes>
            0 -1 54 -7.4420683085918427e-03</internalNodes>
          <leafValues>
            6.0863250494003296e-01 -4.7575983405113220e-01</leafValues></_>
        <_>
          <internalNodes>
            0 -1 0 -1.1291684210300446e-01</internalNodes>
          <leafValues>
            -9.9002170562744141e-01 2.5505152344703674e-01</leafValues></_>
        <_>
          <internalNodes>
            0 -1 30 -2.0765236113220453e-03</internalNodes>
          <leafValues>
            5.9804326295852661e-01 -5.1836222410202026e-01</leafValues></_>
        <_>
          <internalNodes>
            0 -1 49 -2.0572634413838387e-02</internalNodes>
          <leafValues>
            3.1612229347229004e-01 -7.5027978420257568e-01</leafValues></_></weakClassifiers></_>
    <!-- stage 10 -->
    <_>
      <maxWeakCount>7</maxWeakCount>
      <stageThreshold>-9.9796682596206665e-01</stageThreshold>
      <weakClassifiers>
        <_>
          <internalNodes>
            0 -1 53 -2.1076607517898083e-03</internalNodes>
          <leafValues>
            7.7718830108642578e-01 -4.4822373986244202e-01</leafValues></_>
        <_>
          <internalNodes>
            0 -1 37 1.8312303582206368e-03</internalNodes>
          <leafValues>
            -8.5718643665313721e-01 2.9797410964965820e-01</leafValues></_>
        <_>
          <internalNodes>
            0 -1 31 1.6093108803033829e-02</internalNodes>
          <leafValues>
            -7.3211336135864258e-01 3.7441217899322510e-01</leafValues></_>
        <_>
          <internalNodes>
            0 -1 21 -1.5483289025723934e-02</internalNodes>
          <leafValues>
            2.7833923697471619e-01 -7.9964315891265869e-01</leafValues></_>
        <_>
          <internalNodes>
            0 -1 11 -3.4245601855218410e-03</internalNodes>
          <leafValues>
            6.9472765922546387e-01 -3.4865105152130127e-01</leafValues></_>
        <_>
          <internalNodes>
            0 -1 43 -2.7367006987333298e-02</internalNodes>
          <leafValues>
            3.1340005993843079e-01 -7.5056707859039307e-01</leafValues></_>
        <_>
          <internalNodes>
            0 -1 20 1.9138420466333628e-03</internalNodes>
          <leafValues>
            -3.1005704402923584e-01 7.9653435945510864e-01</leafValues></_></weakClassifiers></_>
    <!-- stage 11 -->
    <_>
      <maxWeakCount>8</maxWeakCount>
      <stageThreshold>-1.7426334619522095e+00</stageThreshold>
      <weakClassifiers>
        <_>
          <internalNodes>
            0 -1 45 -2.3140031844377518e-03</internalNodes>
          <leafValues>
            4.9079754948616028e-01 -5.9160304069519043e-01</leafValues></_>
        <_>
          <internalNodes>
            0 -1 36 -1.8505563493818045e-03</internalNodes>
          <leafValues>
            -5.9391558170318604e-01 3.7337017059326172e-01</leafValues></_>
        <_>
          <internalNodes>
            0 -1 4 4.2439382523298264e-03</internalNodes>
          <leafValues>
            -4.6827936172485352e-01 5.1713085174560547e-01</leafValues></_>
        <_>
          <internalNodes>
            0 -1 47 -1.6393256373703480e-03</internalNodes>
          <leafValues>
            6.9552844762802124e-01 -3.0798262357711792e-01</leafValues></_>
        <_>
          <internalNodes>
            0 -1 50 7.6140847522765398e-04</internalNodes>
          <leafValues>
            2.7802604436874390e-01 -7.2667753696441650e-01</leafValues></_>
        <_>
          <internalNodes>
            0 -1 52 2.7551222592592239e-03</internalNodes>
          <leafValues>
            -2.9940223693847656e-01 6.7458450794219971e-01</leafValues></_>
        <_>
          <internalNodes>
            0 -1 25 -2.0311991684138775e-03</internalNodes>
          <leafValues>
            5.4928392171859741e-01 -3.7093332409858704e-01</leafValues></_>
        <_>
          <internalNodes>
            0 -1 5 4.9762846902012825e-03</internalNodes>
          <leafValues>
            -4.7094389796257019e-01 4.5462703704833984e-01</leafValues></_></weakClassifiers></_>
    <!-- stage 12 -->
    <_>
      <maxWeakCount>7</maxWeakCount>
      <stageThreshold>-9.5006012916564941e-01</stageThreshold>
      <weakClassifiers>
        <_>
          <internalNodes>
            0 -1 28 2.0471177995204926e-03</internalNodes>
          <leafValues>
            -4.5173746347427368e-01 7.0370370149612427e-01</leafValues></_>
        <_>
          <internalNodes>
            0 -1 38 -8.0353561788797379e-03</internalNodes>
          <leafValues>
            -8.2137662172317505e-01 2.9793846607208252e-01</leafValues></_>
        <_>
          <internalNodes>
            0 -1 26 2.4629859253764153e-03</internalNodes>
          <leafValues>
            -2.7724939584732056e-01 8.4167134761810303e-01</leafValues></_>
        <_>
          <internalNodes>
            0 -1 3 -2.9362820088863373e-02</internalNodes>
          <leafValues>
            2.9982534050941467e-01 -6.9835400581359863e-01</leafValues></_>
        <_>
          <internalNodes>
            0 -1 12 -9.3268081545829773e-03</internalNodes>
          <leafValues>
            2.6993668079376221e-01 -7.4519771337509155e-01</leafValues></_>
        <_>
          <internalNodes>
            0 -1 29 -1.7348419642075896e-03</internalNodes>
          <leafValues>
            3.1811240315437317e-01 -6.4800393581390381e-01</leafValues></_>
        <_>
          <internalNodes>
            0 -1 22 2.1059429273009300e-03</internalNodes>
          <leafValues>
            -2.8757107257843018e-01 7.5042438507080078e-01</leafValues></_></weakClassifiers></_>
    <!-- stage 13 -->
    <_>
      <maxWeakCount>8</maxWeakCount>
      <stageThreshold>-1.1842490434646606e+00</stageThreshold>
      <weakClassifiers>
        <_>
          <internalNodes>
            0 -1 18 -2.6799528859555721e-03</internalNodes>
          <leafValues>
            6.9473683834075928e-01 -4.2727273702621460e-01</leafValues></_>
        <_>
          <internalNodes>
            0 -1 14 3.9130311459302902e-02</internalNodes>
          <leafValues>
            -6.0358148813247681e-01 3.5674104094505310e-01</leafValues></_>
        <_>
          <internalNodes>
            0 -1 46 2.1799197420477867e-03</internalNodes>
          <leafValues>
            -3.3746758103370667e-01 6.1767816543579102e-01</leafValues></_>
        <_>
          <internalNodes>
            0 -1 23 2.4772128090262413e-03</internalNodes>
          <leafValues>
            -2.1486397087574005e-01 8.5673666000366211e-01</leafValues></_>
        <_>
          <internalNodes>
            0 -1 44 1.3054499868303537e-04</internalNodes>
          <leafValues>
            3.6668053269386292e-01 -5.1408618688583374e-01</leafValues></_>
        <_>
          <internalNodes>
            0 -1 37 1.3284599408507347e-03</internalNodes>
          <leafValues>
            -8.8875389099121094e-01 2.4387916922569275e-01</leafValues></_>
        <_>
          <internalNodes>
            0 -1 7 -3.7168951239436865e-03</internalNodes>
          <leafValues>
            3.7736523151397705e-01 -5.0996810197830200e-01</leafValues></_>
        <_>
          <internalNodes>
            0 -1 2 1.0850749909877777e-02</internalNodes>
          <leafValues>
            -5.8898824453353882e-01 3.1771978735923767e-01</leafValues></_></weakClassifiers></_></stages>
  <features>
    <_>
      <rects>
        <_>
          0 6 3 18 -1.</_>
        <_>
          0 12 3 6 2.</_></rects>
      <tilted>0</tilted></_>
    <_>
      <rects>
        <_>
          0 12 10 10 -1.</_>
        <_>
          5 12 5 10 2.</_></rects>
      <tilted>0</tilted></_>
    <_>
      <rects>
        <_>
          2 10 10 9 -1.</_>
        <_>
          7 10 5 9 2.</_></rects>
      <tilted>0</tilted></_>
    <_>
      <rects>
        <_>
          3 6 2 21 -1.</_>
        <_>
          3 13 2 7 2.</_></rects>
      <tilted>0</tilted></_>
    <_>
      <rects>
        <_>
          4 3 2 16 -1.</_>
        <_>
          4 3 1 8 2.</_>
        <_>
          5 11 1 8 2.</_></rects>
      <tilted>0</tilted></_>
    <_>
      <rects>
        <_>
          4 3 8 10 -1.</_>
        <_>
          4 3 4 5 2.</_>
        <_>
          8 8 4 5 2.</_></rects>
      <tilted>0</tilted></_>
    <_>
      <rects>
        <_>
          4 5 2 14 -1.</_>
        <_>
          4 5 1 7 2.</_>
        <_>
          5 12 1 7 2.</_></rects>
      <tilted>0</tilted></_>
    <_>
      <rects>
        <_>
          4 10 2 18 -1.</_>
        <_>
          4 10 1 9 2.</_>
        <_>
          5 19 1 9 2.</_></rects>
      <tilted>0</tilted></_>
    <_>
      <rects>
        <_>
          4 11 2 9 -1.</_>
        <_>
          5 11 1 9 2.</_></rects>
      <tilted>0</tilted></_>
    <_>
      <rects>
        <_>
          4 12 2 12 -1.</_>
        <_>
          4 12 1 6 2.</_>
        <_>
          5 18 1 6 2.</_></rects>
      <tilted>0</tilted></_>
    <_>
      <rects>
        <_>
          5 3 5 27 -1.</_>
        <_>
          5 12 5 9 2.</_></rects>
      <tilted>0</tilted></_>
    <_>
      <rects>
        <_>
          5 9 2 8 -1.</_>
        <_>
          5 9 1 4 2.</_>
        <_>
          6 13 1 4 2.</_></rects>
      <tilted>0</tilted></_>
    <_>
      <rects>
        <_>
          5 16 7 10 -1.</_>
        <_>
          5 21 7 5 2.</_></rects>
      <tilted>0</tilted></_>
    <_>
      <rects>
        <_>
          6 14 14 16 -1.</_>
        <_>
          6 22 14 8 2.</_></rects>
      <tilted>0</tilted></_>
    <_>
      <rects>
        <_>
          8 0 7 16 -1.</_>
        <_>
          8 8 7 8 2.</_></rects>
      <tilted>0</tilted></_>
    <_>
      <rects>
        <_>
          8 9 22 5 -1.</_>
        <_>
          19 9 11 5 2.</_></rects>
      <tilted>0</tilted></_>
    <_>
      <rects>
        <_>
          8 12 2 6 -1.</_>
        <_>
          9 12 1 6 2.</_></rects>
      <tilted>0</tilted></_>
    <_>
      <rects>
        <_>
          9 4 12 10 -1.</_>
        <_>
          9 9 12 5 2.</_></rects>
      <tilted>0</tilted></_>
    <_>
      <rects>
        <_>
          9 13 2 2 -1.</_>
        <_>
          10 13 1 2 2.</_></rects>
      <tilted>0</tilted></_>
    <_>
      <rects>
        <_>
          10 17 10 10 -1.</_>
        <_>
          10 22 10 5 2.</_></rects>
      <tilted>0</tilted></_>
    <_>
      <rects>
        <_>
          11 17 2 2 -1.</_>
        <_>
          11 17 1 1 2.</_>
        <_>
          12 18 1 1 2.</_></rects>
      <tilted>0</tilted></_>
    <_>
      <rects>
        <_>
          11 17 8 10 -1.</_>
        <_>
          11 22 8 5 2.</_></rects>
      <tilted>0</tilted></_>
    <_>
      <rects>
        <_>
          11 18 2 2 -1.</_>
        <_>
          11 18 1 1 2.</_>
        <_>
          12 19 1 1 2.</_></rects>
      <tilted>0</tilted></_>
    <_>
      <rects>
        <_>
          12 10 2 2 -1.</_>
        <_>
          12 10 1 1 2.</_>
        <_>
          13 11 1 1 2.</_></rects>
      <tilted>0</tilted></_>
    <_>
      <rects>
        <_>
          12 12 2 2 -1.</_>
        <_>
          12 12 1 1 2.</_>
        <_>
          13 13 1 1 2.</_></rects>
      <tilted>0</tilted></_>
    <_>
      <rects>
        <_>
          12 12 2 4 -1.</_>
        <_>
          12 12 1 2 2.</_>
        <_>
          13 14 1 2 2.</_></rects>
      <tilted>0</tilted></_>
    <_>
      <rects>
        <_>
          13 11 2 2 -1.</_>
        <_>
          13 11 1 1 2.</_>
        <_>
          14 12 1 1 2.</_></rects>
      <tilted>0</tilted></_>
    <_>
      <rects>
        <_>
          13 11 14 3 -1.</_>
        <_>
          20 11 7 3 2.</_></rects>
      <tilted>0</tilted></_>
    <_>
      <rects>
        <_>
          13 12 2 2 -1.</_>
        <_>
          13 12 1 1 2.</_>
        <_>
          14 13 1 1 2.</_></rects>
      <tilted>0</tilted></_>
    <_>
      <rects>
        <_>
          13 13 4 2 -1.</_>
        <_>
          13 14 4 1 2.</_></rects>
      <tilted>0</tilted></_>
    <_>
      <rects>
        <_>
          13 15 2 2 -1.</_>
        <_>
          13 15 1 1 2.</_>
        <_>
          14 16 1 1 2.</_></rects>
      <tilted>0</tilted></_>
    <_>
      <rects>
        <_>
          14 6 7 8 -1.</_>
        <_>
          14 10 7 4 2.</_></rects>
      <tilted>0</tilted></_>
    <_>
      <rects>
        <_>
          14 11 4 6 -1.</_>
        <_>
          14 14 4 3 2.</_></rects>
      <tilted>0</tilted></_>
    <_>
      <rects>
        <_>
          14 13 1 2 -1.</_>
        <_>
          14 14 1 1 2.</_></rects>
      <tilted>0</tilted></_>
    <_>
      <rects>
        <_>
          14 13 2 2 -1.</_>
        <_>
          14 14 2 1 2.</_></rects>
      <tilted>0</tilted></_>
    <_>
      <rects>
        <_>
          14 14 1 2 -1.</_>
        <_>
          14 15 1 1 2.</_></rects>
      <tilted>0</tilted></_>
    <_>
      <rects>
        <_>
          14 14 1 3 -1.</_>
        <_>
          14 15 1 1 2.</_></rects>
      <tilted>0</tilted></_>
    <_>
      <rects>
        <_>
          14 14 2 2 -1.</_>
        <_>
          14 15 2 1 2.</_></rects>
      <tilted>0</tilted></_>
    <_>
      <rects>
        <_>
          14 14 2 3 -1.</_>
        <_>
          14 15 2 1 2.</_></rects>
      <tilted>0</tilted></_>
    <_>
      <rects>
        <_>
          14 15 1 3 -1.</_>
        <_>
          14 16 1 1 2.</_></rects>
      <tilted>0</tilted></_>
    <_>
      <rects>
        <_>
          14 15 2 2 -1.</_>
        <_>
          14 16 2 1 2.</_></rects>
      <tilted>0</tilted></_>
    <_>
      <rects>
        <_>
          14 18 16 4 -1.</_>
        <_>
          22 18 8 4 2.</_></rects>
      <tilted>0</tilted></_>
    <_>
      <rects>
        <_>
          15 6 4 8 -1.</_>
        <_>
          15 10 4 4 2.</_></rects>
      <tilted>0</tilted></_>
    <_>
      <rects>
        <_>
          15 10 2 12 -1.</_>
        <_>
          15 14 2 4 2.</_></rects>
      <tilted>0</tilted></_>
    <_>
      <rects>
        <_>
          15 14 2 1 -1.</_>
        <_>
          16 14 1 1 2.</_></rects>
      <tilted>0</tilted></_>
    <_>
      <rects>
        <_>
          15 15 1 2 -1.</_>
        <_>
          15 16 1 1 2.</_></rects>
      <tilted>0</tilted></_>
    <_>
      <rects>
        <_>
          15 18 2 2 -1.</_>
        <_>
          15 19 2 1 2.</_></rects>
      <tilted>0</tilted></_>
    <_>
      <rects>
        <_>
          16 17 2 4 -1.</_>
        <_>
          16 17 1 2 2.</_>
        <_>
          17 19 1 2 2.</_></rects>
      <tilted>0</tilted></_>
    <_>
      <rects>
        <_>
          17 0 4 30 -1.</_>
        <_>
          17 10 4 10 2.</_></rects>
      <tilted>0</tilted></_>
    <_>
      <rects>
        <_>
          17 12 2 9 -1.</_>
        <_>
          17 15 2 3 2.</_></rects>
      <tilted>0</tilted></_>
    <_>
      <rects>
        <_>
          18 4 10 18 -1.</_>
        <_>
          18 4 5 9 2.</_>
        <_>
          23 13 5 9 2.</_></rects>
      <tilted>0</tilted></_>
    <_>
      <rects>
        <_>
          18 16 2 4 -1.</_>
        <_>
          18 16 1 2 2.</_>
        <_>
          19 18 1 2 2.</_></rects>
      <tilted>0</tilted></_>
    <_>
      <rects>
        <_>
          19 16 2 6 -1.</_>
        <_>
          19 16 1 3 2.</_>
        <_>
          20 19 1 3 2.</_></rects>
      <tilted>0</tilted></_>
    <_>
      <rects>
        <_>
          19 17 2 1 -1.</_>
        <_>
          20 17 1 1 2.</_></rects>
      <tilted>0</tilted></_>
    <_>
      <rects>
        <_>
          23 6 4 12 -1.</_>
        <_>
          23 6 2 6 2.</_>
        <_>
          25 12 2 6 2.</_></rects>
      <tilted>0</tilted></_></features></cascade>
</opencv_storage>
